<?xml version="1.0"?>
<opencv_storage>
<cascade>
  <stageType>BOOST</stageType>
  <featureType>HAAR</featureType>
  <height>10</height>
  <width>25</width>
  <stageParams>
    <boostType>GAB</boostType>
    <minHitRate>9.9500000476837158e-01</minHitRate>
    <maxFalseAlarm>5.0000000000000000e-01</maxFalseAlarm>
    <weightTrimRate>9.4999999999999996e-01</weightTrimRate>
    <maxDepth>1</maxDepth>
    <maxWeakCount>100</maxWeakCount></stageParams>
  <featureParams>
    <maxCatCount>0</maxCatCount>
    <featSize>1</featSize>
    <mode>ALL</mode></featureParams>
  <stageNum>10</stageNum>
  <stages>
    <!-- stage 0 -->
    <_>
      <maxWeakCount>4</maxWeakCount>
      <stageThreshold>-5.1099753379821777e-01</stageThreshold>
      <weakClassifiers>
        <_>
          <internalNodes>
            0 -1 69 -6.0086213052272797e-02</internalNodes>
          <leafValues>
            7.4100720882415771e-01 -5.4237288236618042e-01</leafValues></_>
        <_>
          <internalNodes>
            0 -1 76 1.1165217496454716e-02</internalNodes>
          <leafValues>
            -3.1339916586875916e-01 7.1813118457794189e-01</leafValues></_>
        <_>
          <internalNodes>
            0 -1 32 -2.3479124903678894e-01</internalNodes>
          <leafValues>
            -9.4500905275344849e-01 1.9750384986400604e-01</leafValues></_>
        <_>
          <internalNodes>
            0 -1 63 -1.3282559812068939e-02</internalNodes>
          <leafValues>
            -7.1113032102584839e-01 2.5825321674346924e-01</leafValues></_></weakClassifiers></_>
    <!-- stage 1 -->
    <_>
      <maxWeakCount>6</maxWeakCount>
      <stageThreshold>-8.0514430999755859e-01</stageThreshold>
      <weakClassifiers>
        <_>
          <internalNodes>
            0 -1 77 -4.8701439052820206e-02</internalNodes>
          <leafValues>
            6.9465649127960205e-01 -4.7540983557701111e-01</leafValues></_>
        <_>
          <internalNodes>
            0 -1 74 -1.7838090658187866e-02</internalNodes>
          <leafValues>
            5.6465184688568115e-01 -3.5737153887748718e-01</leafValues></_>
        <_>
          <internalNodes>
            0 -1 105 6.2411790713667870e-03</internalNodes>
          <leafValues>
            -2.4267165362834930e-01 7.4087196588516235e-01</leafValues></_>
        <_>
          <internalNodes>
            0 -1 34 -5.7247374206781387e-03</internalNodes>
          <leafValues>
            7.9455435276031494e-01 -2.5247058272361755e-01</leafValues></_>
        <_>
          <internalNodes>
            0 -1 88 1.5734257176518440e-02</internalNodes>
          <leafValues>
            -1.7286215722560883e-01 8.4159868955612183e-01</leafValues></_>
        <_>
          <internalNodes>
            0 -1 82 -2.2817213088274002e-02</internalNodes>
          <leafValues>
            7.8669130802154541e-01 -2.2638195753097534e-01</leafValues></_></weakClassifiers></_>
    <!-- stage 2 -->
    <_>
      <maxWeakCount>7</maxWeakCount>
      <stageThreshold>-6.3081377744674683e-01</stageThreshold>
      <weakClassifiers>
        <_>
          <internalNodes>
            0 -1 69 -8.8061541318893433e-02</internalNodes>
          <leafValues>
            5.2490419149398804e-01 -3.8241308927536011e-01</leafValues></_>
        <_>
          <internalNodes>
            0 -1 43 6.9772964343428612e-03</internalNodes>
          <leafValues>
            -1.7958553135395050e-01 6.8757677078247070e-01</leafValues></_>
        <_>
          <internalNodes>
            0 -1 65 -1.1532520875334740e-02</internalNodes>
          <leafValues>
            5.5158853530883789e-01 -2.5736704468727112e-01</leafValues></_>
        <_>
          <internalNodes>
            0 -1 11 -1.5238270163536072e-02</internalNodes>
          <leafValues>
            5.8112221956253052e-01 -1.9070088863372803e-01</leafValues></_>
        <_>
          <internalNodes>
            0 -1 15 8.2355439662933350e-03</internalNodes>
          <leafValues>
            -1.7112460732460022e-01 6.2174260616302490e-01</leafValues></_>
        <_>
          <internalNodes>
            0 -1 86 2.1021522581577301e-02</internalNodes>
          <leafValues>
            -1.5614587068557739e-01 7.8630125522613525e-01</leafValues></_>
        <_>
          <internalNodes>
            0 -1 56 7.6236724853515625e-02</internalNodes>
          <leafValues>
            1.7720332741737366e-01 -9.6959465742111206e-01</leafValues></_></weakClassifiers></_>
    <!-- stage 3 -->
    <_>
      <maxWeakCount>8</maxWeakCount>
      <stageThreshold>-7.4717962741851807e-01</stageThreshold>
      <weakClassifiers>
        <_>
          <internalNodes>
            0 -1 48 2.3155964910984039e-02</internalNodes>
          <leafValues>
            -2.7956989407539368e-01 5.5208331346511841e-01</leafValues></_>
        <_>
          <internalNodes>
            0 -1 60 -2.2669479250907898e-02</internalNodes>
          <leafValues>
            8.3806627988815308e-01 -1.4877414703369141e-01</leafValues></_>
        <_>
          <internalNodes>
            0 -1 26 1.7968857660889626e-02</internalNodes>
          <leafValues>
            -2.1409226953983307e-01 5.6957876682281494e-01</leafValues></_>
        <_>
          <internalNodes>
            0 -1 67 1.6469258815050125e-02</internalNodes>
          <leafValues>
            -3.0084511637687683e-01 4.3606716394424438e-01</leafValues></_>
        <_>
          <internalNodes>
            0 -1 93 9.5713380724191666e-03</internalNodes>
          <leafValues>
            -1.7595189809799194e-01 7.1197748184204102e-01</leafValues></_>
        <_>
          <internalNodes>
            0 -1 99 5.1026854664087296e-02</internalNodes>
          <leafValues>
            -2.1277341246604919e-01 6.2459588050842285e-01</leafValues></_>
        <_>
          <internalNodes>
            0 -1 41 -1.2563445605337620e-02</internalNodes>
          <leafValues>
            8.1881701946258545e-01 -1.0068155080080032e-01</leafValues></_>
        <_>
          <internalNodes>
            0 -1 2 -4.4706133008003235e-01</internalNodes>
          <leafValues>
            -9.2981559038162231e-01 1.5230879187583923e-01</leafValues></_></weakClassifiers></_>
    <!-- stage 4 -->
    <_>
      <maxWeakCount>11</maxWeakCount>
      <stageThreshold>-7.8312206268310547e-01</stageThreshold>
      <weakClassifiers>
        <_>
          <internalNodes>
            0 -1 89 -1.9008385017514229e-02</internalNodes>
          <leafValues>
            6.6666668653488159e-01 -2.5000000000000000e-01</leafValues></_>
        <_>
          <internalNodes>
            0 -1 44 8.9016214013099670e-02</internalNodes>
          <leafValues>
            1.7507618665695190e-01 -8.1385129690170288e-01</leafValues></_>
        <_>
          <internalNodes>
            0 -1 100 3.8067236542701721e-02</internalNodes>
          <leafValues>
            -1.6806162893772125e-01 7.3716783523559570e-01</leafValues></_>
        <_>
          <internalNodes>
            0 -1 104 5.1378328353166580e-03</internalNodes>
          <leafValues>
            -1.4213931560516357e-01 7.5133788585662842e-01</leafValues></_>
        <_>
          <internalNodes>
            0 -1 17 -1.1829465627670288e-02</internalNodes>
          <leafValues>
            7.9146045446395874e-01 -1.3550873100757599e-01</leafValues></_>
        <_>
          <internalNodes>
            0 -1 24 -3.3063977956771851e-02</internalNodes>
          <leafValues>
            7.0515578985214233e-01 -1.0710074007511139e-01</leafValues></_>
        <_>
          <internalNodes>
            0 -1 6 1.3350595720112324e-02</internalNodes>
          <leafValues>
            -2.5290444493293762e-01 5.1374226808547974e-01</leafValues></_>
        <_>
          <internalNodes>
            0 -1 14 -1.9427295774221420e-02</internalNodes>
          <leafValues>
            4.8609402775764465e-01 -2.2217595577239990e-01</leafValues></_>
        <_>
          <internalNodes>
            0 -1 38 -7.5842356309294701e-03</internalNodes>
          <leafValues>
            9.3900543451309204e-01 -1.1742896586656570e-01</leafValues></_>
        <_>
          <internalNodes>
            0 -1 23 5.5799782276153564e-03</internalNodes>
          <leafValues>
            -9.6232496201992035e-02 7.6890707015991211e-01</leafValues></_>
        <_>
          <internalNodes>
            0 -1 23 -2.5563435629010201e-03</internalNodes>
          <leafValues>
            5.7626384496688843e-01 -1.7491595447063446e-01</leafValues></_></weakClassifiers></_>
    <!-- stage 5 -->
    <_>
      <maxWeakCount>15</maxWeakCount>
      <stageThreshold>-1.0005123615264893e+00</stageThreshold>
      <weakClassifiers>
        <_>
          <internalNodes>
            0 -1 72 1.5061164740473032e-03</internalNodes>
          <leafValues>
            8.3469718694686890e-02 -7.2661870718002319e-01</leafValues></_>
        <_>
          <internalNodes>
            0 -1 84 1.9677826203405857e-03</internalNodes>
          <leafValues>
            -2.2843773663043976e-01 4.7014185786247253e-01</leafValues></_>
        <_>
          <internalNodes>
            0 -1 51 -3.7737265229225159e-02</internalNodes>
          <leafValues>
            -8.1269526481628418e-01 1.3163168728351593e-01</leafValues></_>
        <_>
          <internalNodes>
            0 -1 49 2.9180537909269333e-02</internalNodes>
          <leafValues>
            1.5142722427845001e-01 -7.4052536487579346e-01</leafValues></_>
        <_>
          <internalNodes>
            0 -1 52 6.6240750253200531e-02</internalNodes>
          <leafValues>
            -1.9175972044467926e-01 7.0061331987380981e-01</leafValues></_>
        <_>
          <internalNodes>
            0 -1 47 -6.5736725926399231e-02</internalNodes>
          <leafValues>
            6.5850687026977539e-01 -1.6848883032798767e-01</leafValues></_>
        <_>
          <internalNodes>
            0 -1 81 -9.6708824858069420e-03</internalNodes>
          <leafValues>
            6.1936533451080322e-01 -1.7993333935737610e-01</leafValues></_>
        <_>
          <internalNodes>
            0 -1 87 3.2595306634902954e-02</internalNodes>
          <leafValues>
            -1.0432952642440796e-01 7.0015454292297363e-01</leafValues></_>
        <_>
          <internalNodes>
            0 -1 8 6.7708507180213928e-02</internalNodes>
          <leafValues>
            1.6248077154159546e-01 -6.1440563201904297e-01</leafValues></_>
        <_>
          <internalNodes>
            0 -1 46 -9.1070318594574928e-03</internalNodes>
          <leafValues>
            5.9353470802307129e-01 -1.7636951804161072e-01</leafValues></_>
        <_>
          <internalNodes>
            0 -1 46 9.9444724619388580e-03</internalNodes>
          <leafValues>
            -1.3110384345054626e-01 6.9321471452713013e-01</leafValues></_>
        <_>
          <internalNodes>
            0 -1 28 1.0619074106216431e-02</internalNodes>
          <leafValues>
            -1.5815538167953491e-01 6.6161930561065674e-01</leafValues></_>
        <_>
          <internalNodes>
            0 -1 103 -3.1408728100359440e-03</internalNodes>
          <leafValues>
            4.0554836392402649e-01 -2.2227126359939575e-01</leafValues></_>
        <_>
          <internalNodes>
            0 -1 102 7.6120430603623390e-03</internalNodes>
          <leafValues>
            -1.7520770430564880e-01 5.7269674539566040e-01</leafValues></_>
        <_>
          <internalNodes>
            0 -1 83 4.8254418652504683e-04</internalNodes>
          <leafValues>
            -2.8343531489372253e-01 3.2386636734008789e-01</leafValues></_></weakClassifiers></_>
    <!-- stage 6 -->
    <_>
      <maxWeakCount>13</maxWeakCount>
      <stageThreshold>-5.3947526216506958e-01</stageThreshold>
      <weakClassifiers>
        <_>
          <internalNodes>
            0 -1 97 -1.2860741466283798e-02</internalNodes>
          <leafValues>
            4.2702701687812805e-01 -2.2831858694553375e-01</leafValues></_>
        <_>
          <internalNodes>
            0 -1 90 -7.8642284497618675e-03</internalNodes>
          <leafValues>
            3.7610813975334167e-01 -1.9016408920288086e-01</leafValues></_>
        <_>
          <internalNodes>
            0 -1 45 9.0551078319549561e-03</internalNodes>
          <leafValues>
            -1.7540451884269714e-01 5.2620172500610352e-01</leafValues></_>
        <_>
          <internalNodes>
            0 -1 55 -5.6732580065727234e-02</internalNodes>
          <leafValues>
            4.2123976349830627e-01 -1.8966940045356750e-01</leafValues></_>
        <_>
          <internalNodes>
            0 -1 18 6.5728530287742615e-02</internalNodes>
          <leafValues>
            -1.1296014487743378e-01 6.4047890901565552e-01</leafValues></_>
        <_>
          <internalNodes>
            0 -1 86 -1.9381381571292877e-02</internalNodes>
          <leafValues>
            5.3975683450698853e-01 -1.4298941195011139e-01</leafValues></_>
        <_>
          <internalNodes>
            0 -1 106 -8.2846609875559807e-03</internalNodes>
          <leafValues>
            6.0850471258163452e-01 -9.9379606544971466e-02</leafValues></_>
        <_>
          <internalNodes>
            0 -1 25 -1.0396421700716019e-01</internalNodes>
          <leafValues>
            5.8885353803634644e-01 -1.2910418212413788e-01</leafValues></_>
        <_>
          <internalNodes>
            0 -1 39 1.0590624064207077e-02</internalNodes>
          <leafValues>
            -1.6525784134864807e-01 4.7913372516632080e-01</leafValues></_>
        <_>
          <internalNodes>
            0 -1 71 -8.9203827083110809e-03</internalNodes>
          <leafValues>
            -9.2757898569107056e-01 1.1111646145582199e-01</leafValues></_>
        <_>
          <internalNodes>
            0 -1 40 2.7087420225143433e-02</internalNodes>
          <leafValues>
            -1.1624670028686523e-01 8.0919736623764038e-01</leafValues></_>
        <_>
          <internalNodes>
            0 -1 37 -3.5419136285781860e-02</internalNodes>
          <leafValues>
            4.6240758895874023e-01 -1.8209487199783325e-01</leafValues></_>
        <_>
          <internalNodes>
            0 -1 108 -2.5040302425622940e-02</internalNodes>
          <leafValues>
            5.5560642480850220e-01 -1.2966611981391907e-01</leafValues></_></weakClassifiers></_>
    <!-- stage 7 -->
    <_>
      <maxWeakCount>17</maxWeakCount>
      <stageThreshold>-1.0075228214263916e+00</stageThreshold>
      <weakClassifiers>
        <_>
          <internalNodes>
            0 -1 64 -1.2946015596389771e-01</internalNodes>
          <leafValues>
            2.9078012704849243e-01 -2.8205129504203796e-01</leafValues></_>
        <_>
          <internalNodes>
            0 -1 29 2.4639513343572617e-02</internalNodes>
          <leafValues>
            -9.8761603236198425e-02 6.9788926839828491e-01</leafValues></_>
        <_>
          <internalNodes>
            0 -1 5 -1.5279100835323334e-01</internalNodes>
          <leafValues>
            7.5779277086257935e-01 -9.4069726765155792e-02</leafValues></_>
        <_>
          <internalNodes>
            0 -1 61 -6.5511010587215424e-02</internalNodes>
          <leafValues>
            5.5247253179550171e-01 -1.9560380280017853e-01</leafValues></_>
        <_>
          <internalNodes>
            0 -1 68 -1.1478174477815628e-02</internalNodes>
          <leafValues>
            4.4049751758575439e-01 -1.4066192507743835e-01</leafValues></_>
        <_>
          <internalNodes>
            0 -1 42 -1.7686659097671509e-01</internalNodes>
          <leafValues>
            -6.9190275669097900e-01 1.3187368214130402e-01</leafValues></_>
        <_>
          <internalNodes>
            0 -1 94 -8.9322943240404129e-03</internalNodes>
          <leafValues>
            2.9960456490516663e-01 -2.2080580890178680e-01</leafValues></_>
        <_>
          <internalNodes>
            0 -1 21 6.1946190893650055e-02</internalNodes>
          <leafValues>
            -1.0383331030607224e-01 6.2661153078079224e-01</leafValues></_>
        <_>
          <internalNodes>
            0 -1 3 -6.7333881743252277e-03</internalNodes>
          <leafValues>
            4.8381632566452026e-01 -1.3586124777793884e-01</leafValues></_>
        <_>
          <internalNodes>
            0 -1 30 -6.5400945022702217e-03</internalNodes>
          <leafValues>
            3.6845391988754272e-01 -1.8642780184745789e-01</leafValues></_>
        <_>
          <internalNodes>
            0 -1 109 4.4460725039243698e-03</internalNodes>
          <leafValues>
            -1.7145165801048279e-01 3.9139437675476074e-01</leafValues></_>
        <_>
          <internalNodes>
            0 -1 20 2.0273357629776001e-02</internalNodes>
          <leafValues>
            -2.4356143176555634e-01 2.8907352685928345e-01</leafValues></_>
        <_>
          <internalNodes>
            0 -1 35 5.5608339607715607e-02</internalNodes>
          <leafValues>
            8.5946872830390930e-02 -7.3471230268478394e-01</leafValues></_>
        <_>
          <internalNodes>
            0 -1 16 6.2725961208343506e-02</internalNodes>
          <leafValues>
            9.8343938589096069e-02 -7.2204530239105225e-01</leafValues></_>
        <_>
          <internalNodes>
            0 -1 15 1.7749778926372528e-02</internalNodes>
          <leafValues>
            -1.1221080273389816e-01 7.3721879720687866e-01</leafValues></_>
        <_>
          <internalNodes>
            0 -1 73 -1.5512965619564056e-03</internalNodes>
          <leafValues>
            -4.6601012349128723e-01 1.6701211035251617e-01</leafValues></_>
        <_>
          <internalNodes>
            0 -1 78 1.1961176060140133e-03</internalNodes>
          <leafValues>
            1.0731282830238342e-01 -7.0623606443405151e-01</leafValues></_></weakClassifiers></_>
    <!-- stage 8 -->
    <_>
      <maxWeakCount>19</maxWeakCount>
      <stageThreshold>-1.0755884647369385e+00</stageThreshold>
      <weakClassifiers>
        <_>
          <internalNodes>
            0 -1 34 -9.4113722443580627e-03</internalNodes>
          <leafValues>
            5.3030300140380859e-01 -1.9417475163936615e-01</leafValues></_>
        <_>
          <internalNodes>
            0 -1 80 1.9644205458462238e-03</internalNodes>
          <leafValues>
            1.2525215744972229e-01 -5.7385969161987305e-01</leafValues></_>
        <_>
          <internalNodes>
            0 -1 33 9.4289034605026245e-03</internalNodes>
          <leafValues>
            -1.4733016490936279e-01 5.5542218685150146e-01</leafValues></_>
        <_>
          <internalNodes>
            0 -1 101 -4.7994364053010941e-02</internalNodes>
          <leafValues>
            7.9441672563552856e-01 -1.0002375394105911e-01</leafValues></_>
        <_>
          <internalNodes>
            0 -1 66 -6.0955137014389038e-02</internalNodes>
          <leafValues>
            -7.0834326744079590e-01 1.0376997292041779e-01</leafValues></_>
        <_>
          <internalNodes>
            0 -1 75 -7.7610298991203308e-02</internalNodes>
          <leafValues>
            -6.6206949949264526e-01 1.2259813398122787e-01</leafValues></_>
        <_>
          <internalNodes>
            0 -1 10 -2.0290765911340714e-02</internalNodes>
          <leafValues>
            5.7246518135070801e-01 -1.2093660235404968e-01</leafValues></_>
        <_>
          <internalNodes>
            0 -1 91 3.6531961522996426e-03</internalNodes>
          <leafValues>
            -1.5937416255474091e-01 4.5629784464836121e-01</leafValues></_>
        <_>
          <internalNodes>
            0 -1 1 -2.8604375198483467e-02</internalNodes>
          <leafValues>
            -4.1849645972251892e-01 1.8588711321353912e-01</leafValues></_>
        <_>
          <internalNodes>
            0 -1 79 -6.5563702955842018e-03</internalNodes>
          <leafValues>
            2.1468065679073334e-01 -3.1311467289924622e-01</leafValues></_>
        <_>
          <internalNodes>
            0 -1 50 -2.3967832326889038e-02</internalNodes>
          <leafValues>
            -5.7205373048782349e-01 1.4547149837017059e-01</leafValues></_>
        <_>
          <internalNodes>
            0 -1 31 6.6621140576899052e-03</internalNodes>
          <leafValues>
            -1.8389269709587097e-01 3.9152902364730835e-01</leafValues></_>
        <_>
          <internalNodes>
            0 -1 54 1.6574953915551305e-03</internalNodes>
          <leafValues>
            -2.4337983131408691e-01 2.9611408710479736e-01</leafValues></_>
        <_>
          <internalNodes>
            0 -1 85 -1.3915052637457848e-02</internalNodes>
          <leafValues>
            5.2033758163452148e-01 -1.3289260864257812e-01</leafValues></_>
        <_>
          <internalNodes>
            0 -1 27 -2.1409340202808380e-02</internalNodes>
          <leafValues>
            5.4611599445343018e-01 -1.5086998045444489e-01</leafValues></_>
        <_>
          <internalNodes>
            0 -1 22 2.7036413550376892e-02</internalNodes>
          <leafValues>
            -1.2125007063150406e-01 5.5954319238662720e-01</leafValues></_>
        <_>
          <internalNodes>
            0 -1 96 1.1682556942105293e-02</internalNodes>
          <leafValues>
            -1.1167109757661819e-01 5.4391855001449585e-01</leafValues></_>
        <_>
          <internalNodes>
            0 -1 9 -6.6578993573784828e-03</internalNodes>
          <leafValues>
            4.6032738685607910e-01 -1.5158997476100922e-01</leafValues></_>
        <_>
          <internalNodes>
            0 -1 13 2.5699783116579056e-02</internalNodes>
          <leafValues>
            -2.0348873734474182e-01 3.5317832231521606e-01</leafValues></_></weakClassifiers></_>
    <!-- stage 9 -->
    <_>
      <maxWeakCount>20</maxWeakCount>
      <stageThreshold>-9.4381135702133179e-01</stageThreshold>
      <weakClassifiers>
        <_>
          <internalNodes>
            0 -1 58 2.6346825063228607e-02</internalNodes>
          <leafValues>
            4.2253520339727402e-02 -6.9369369745254517e-01</leafValues></_>
        <_>
          <internalNodes>
            0 -1 57 2.8111003339290619e-02</internalNodes>
          <leafValues>
            6.9811835885047913e-02 -7.7045381069183350e-01</leafValues></_>
        <_>
          <internalNodes>
            0 -1 53 2.0658548921346664e-02</internalNodes>
          <leafValues>
            -1.0172281414270401e-01 6.1805796623229980e-01</leafValues></_>
        <_>
          <internalNodes>
            0 -1 59 2.1550575271248817e-02</internalNodes>
          <leafValues>
            -1.4224450290203094e-01 6.0341185331344604e-01</leafValues></_>
        <_>
          <internalNodes>
            0 -1 92 1.1188786476850510e-02</internalNodes>
          <leafValues>
            -2.0639774203300476e-01 3.5535374283790588e-01</leafValues></_>
        <_>
          <internalNodes>
            0 -1 19 -4.7863325476646423e-01</internalNodes>
          <leafValues>
            -9.0676742792129517e-01 1.0463909059762955e-01</leafValues></_>
        <_>
          <internalNodes>
            0 -1 36 -4.0211364626884460e-02</internalNodes>
          <leafValues>
            5.3725725412368774e-01 -1.6314205527305603e-01</leafValues></_>
        <_>
          <internalNodes>
            0 -1 95 7.5174840167164803e-03</internalNodes>
          <leafValues>
            -9.9900700151920319e-02 5.9670931100845337e-01</leafValues></_>
        <_>
          <internalNodes>
            0 -1 111 -3.9371522143483162e-03</internalNodes>
          <leafValues>
            4.7472390532493591e-01 -1.3876084983348846e-01</leafValues></_>
        <_>
          <internalNodes>
            0 -1 12 -1.7124835401773453e-02</internalNodes>
          <leafValues>
            5.3661882877349854e-01 -1.4638841152191162e-01</leafValues></_>
        <_>
          <internalNodes>
            0 -1 7 -1.5021650120615959e-02</internalNodes>
          <leafValues>
            4.8015257716178894e-01 -1.3794109225273132e-01</leafValues></_>
        <_>
          <internalNodes>
            0 -1 70 -6.3434909097850323e-03</internalNodes>
          <leafValues>
            -8.7509769201278687e-01 1.1512405425310135e-01</leafValues></_>
        <_>
          <internalNodes>
            0 -1 110 3.6076597869396210e-02</internalNodes>
          <leafValues>
            -1.9072625041007996e-01 3.8163384795188904e-01</leafValues></_>
        <_>
          <internalNodes>
            0 -1 100 3.2407388091087341e-02</internalNodes>
          <leafValues>
            -1.4774860441684723e-01 4.6783041954040527e-01</leafValues></_>
        <_>
          <internalNodes>
            0 -1 78 1.6816890565678477e-03</internalNodes>
          <leafValues>
            1.0399438440799713e-01 -7.7647918462753296e-01</leafValues></_>
        <_>
          <internalNodes>
            0 -1 107 -5.6950608268380165e-03</internalNodes>
          <leafValues>
            2.8849685192108154e-01 -2.4393652379512787e-01</leafValues></_>
        <_>
          <internalNodes>
            0 -1 0 -1.7296306788921356e-02</internalNodes>
          <leafValues>
            4.8049426078796387e-01 -1.2802669405937195e-01</leafValues></_>
        <_>
          <internalNodes>
            0 -1 98 1.1371920816600323e-02</internalNodes>
          <leafValues>
            -1.6893425583839417e-01 3.9630320668220520e-01</leafValues></_>
        <_>
          <internalNodes>
            0 -1 4 -6.5507260151207447e-03</internalNodes>
          <leafValues>
            3.9571961760520935e-01 -1.6413252055644989e-01</leafValues></_>
        <_>
          <internalNodes>
            0 -1 62 4.4249128550291061e-03</internalNodes>
          <leafValues>
            -1.3334542512893677e-01 5.3492414951324463e-01</leafValues></_></weakClassifiers></_></stages>
  <features>
    <_>
      <rects>
        <_>
          0 2 4 3 -1.</_>
        <_>
          2 2 2 3 2.</_></rects>
      <tilted>0</tilted></_>
    <_>
      <rects>
        <_>
          0 6 5 4 -1.</_>
        <_>
          0 8 5 2 2.</_></rects>
      <tilted>0</tilted></_>
    <_>
      <rects>
        <_>
          1 2 24 8 -1.</_>
        <_>
          1 6 24 4 2.</_></rects>
      <tilted>0</tilted></_>
    <_>
      <rects>
        <_>
          1 4 4 2 -1.</_>
        <_>
          1 4 2 1 2.</_>
        <_>
          3 5 2 1 2.</_></rects>
      <tilted>0</tilted></_>
    <_>
      <rects>
        <_>
          1 5 6 2 -1.</_>
        <_>
          1 5 3 1 2.</_>
        <_>
          4 6 3 1 2.</_></rects>
      <tilted>0</tilted></_>
    <_>
      <rects>
        <_>
          1 5 24 2 -1.</_>
        <_>
          9 5 8 2 3.</_></rects>
      <tilted>0</tilted></_>
    <_>
      <rects>
        <_>
          1 8 6 2 -1.</_>
        <_>
          3 8 2 2 3.</_></rects>
      <tilted>0</tilted></_>
    <_>
      <rects>
        <_>
          2 1 8 2 -1.</_>
        <_>
          2 1 4 1 2.</_>
        <_>
          6 2 4 1 2.</_></rects>
      <tilted>0</tilted></_>
    <_>
      <rects>
        <_>
          2 2 12 7 -1.</_>
        <_>
          6 2 4 7 3.</_></rects>
      <tilted>0</tilted></_>
    <_>
      <rects>
        <_>
          2 3 4 2 -1.</_>
        <_>
          2 3 2 1 2.</_>
        <_>
          4 4 2 1 2.</_></rects>
      <tilted>0</tilted></_>
    <_>
      <rects>
        <_>
          2 5 6 2 -1.</_>
        <_>
          2 5 3 1 2.</_>
        <_>
          5 6 3 1 2.</_></rects>
      <tilted>0</tilted></_>
    <_>
      <rects>
        <_>
          2 5 8 2 -1.</_>
        <_>
          2 5 4 1 2.</_>
        <_>
          6 6 4 1 2.</_></rects>
      <tilted>0</tilted></_>
    <_>
      <rects>
        <_>
          2 6 6 2 -1.</_>
        <_>
          2 6 3 1 2.</_>
        <_>
          5 7 3 1 2.</_></rects>
      <tilted>0</tilted></_>
    <_>
      <rects>
        <_>
          3 0 10 4 -1.</_>
        <_>
          3 0 5 2 2.</_>
        <_>
          8 2 5 2 2.</_></rects>
      <tilted>0</tilted></_>
    <_>
      <rects>
        <_>
          3 3 6 4 -1.</_>
        <_>
          3 3 3 2 2.</_>
        <_>
          6 5 3 2 2.</_></rects>
      <tilted>0</tilted></_>
    <_>
      <rects>
        <_>
          3 5 4 2 -1.</_>
        <_>
          3 5 2 1 2.</_>
        <_>
          5 6 2 1 2.</_></rects>
      <tilted>0</tilted></_>
    <_>
      <rects>
        <_>
          3 5 12 5 -1.</_>
        <_>
          7 5 4 5 3.</_></rects>
      <tilted>0</tilted></_>
    <_>
      <rects>
        <_>
          3 6 4 2 -1.</_>
        <_>
          3 6 2 1 2.</_>
        <_>
          5 7 2 1 2.</_></rects>
      <tilted>0</tilted></_>
    <_>
      <rects>
        <_>
          4 0 14 4 -1.</_>
        <_>
          4 0 7 2 2.</_>
        <_>
          11 2 7 2 2.</_></rects>
      <tilted>0</tilted></_>
    <_>
      <rects>
        <_>
          4 0 21 6 -1.</_>
        <_>
          11 2 7 2 9.</_></rects>
      <tilted>0</tilted></_>
    <_>
      <rects>
        <_>
          4 1 8 5 -1.</_>
        <_>
          8 1 4 5 2.</_></rects>
      <tilted>0</tilted></_>
    <_>
      <rects>
        <_>
          4 1 10 4 -1.</_>
        <_>
          4 1 5 2 2.</_>
        <_>
          9 3 5 2 2.</_></rects>
      <tilted>0</tilted></_>
    <_>
      <rects>
        <_>
          4 3 3 3 -1.</_>
        <_>
          5 4 1 3 3.</_></rects>
      <tilted>1</tilted></_>
    <_>
      <rects>
        <_>
          4 5 2 2 -1.</_>
        <_>
          4 5 1 1 2.</_>
        <_>
          5 6 1 1 2.</_></rects>
      <tilted>0</tilted></_>
    <_>
      <rects>
        <_>
          4 6 14 2 -1.</_>
        <_>
          4 6 7 1 2.</_>
        <_>
          11 7 7 1 2.</_></rects>
      <tilted>0</tilted></_>
    <_>
      <rects>
        <_>
          4 6 18 4 -1.</_>
        <_>
          4 6 9 2 2.</_>
        <_>
          13 8 9 2 2.</_></rects>
      <tilted>0</tilted></_>
    <_>
      <rects>
        <_>
          4 8 10 2 -1.</_>
        <_>
          4 8 5 1 2.</_>
        <_>
          9 9 5 1 2.</_></rects>
      <tilted>0</tilted></_>
    <_>
      <rects>
        <_>
          5 1 10 2 -1.</_>
        <_>
          5 1 5 1 2.</_>
        <_>
          10 2 5 1 2.</_></rects>
      <tilted>0</tilted></_>
    <_>
      <rects>
        <_>
          5 2 4 2 -1.</_>
        <_>
          5 2 2 1 2.</_>
        <_>
          7 3 2 1 2.</_></rects>
      <tilted>0</tilted></_>
    <_>
      <rects>
        <_>
          5 3 6 2 -1.</_>
        <_>
          5 3 3 1 2.</_>
        <_>
          8 4 3 1 2.</_></rects>
      <tilted>0</tilted></_>
    <_>
      <rects>
        <_>
          5 7 3 3 -1.</_>
        <_>
          6 7 1 3 3.</_></rects>
      <tilted>0</tilted></_>
    <_>
      <rects>
        <_>
          6 0 2 6 -1.</_>
        <_>
          6 0 1 3 2.</_>
        <_>
          7 3 1 3 2.</_></rects>
      <tilted>0</tilted></_>
    <_>
      <rects>
        <_>
          6 1 18 9 -1.</_>
        <_>
          15 1 9 9 2.</_></rects>
      <tilted>0</tilted></_>
    <_>
      <rects>
        <_>
          6 2 1 3 -1.</_>
        <_>
          6 3 1 1 3.</_></rects>
      <tilted>0</tilted></_>
    <_>
      <rects>
        <_>
          6 4 1 3 -1.</_>
        <_>
          6 5 1 1 3.</_></rects>
      <tilted>0</tilted></_>
    <_>
      <rects>
        <_>
          6 4 10 5 -1.</_>
        <_>
          11 4 5 5 2.</_></rects>
      <tilted>0</tilted></_>
    <_>
      <rects>
        <_>
          6 5 3 3 -1.</_>
        <_>
          7 6 1 1 9.</_></rects>
      <tilted>0</tilted></_>
    <_>
      <rects>
        <_>
          6 5 5 4 -1.</_>
        <_>
          6 7 5 2 2.</_></rects>
      <tilted>0</tilted></_>
    <_>
      <rects>
        <_>
          6 6 2 2 -1.</_>
        <_>
          6 6 1 1 2.</_>
        <_>
          7 7 1 1 2.</_></rects>
      <tilted>0</tilted></_>
    <_>
      <rects>
        <_>
          6 6 3 4 -1.</_>
        <_>
          7 6 1 4 3.</_></rects>
      <tilted>0</tilted></_>
    <_>
      <rects>
        <_>
          6 6 2 3 -1.</_>
        <_>
          6 7 2 1 3.</_></rects>
      <tilted>0</tilted></_>
    <_>
      <rects>
        <_>
          6 6 4 2 -1.</_>
        <_>
          6 6 2 1 2.</_>
        <_>
          8 7 2 1 2.</_></rects>
      <tilted>0</tilted></_>
    <_>
      <rects>
        <_>
          7 1 18 7 -1.</_>
        <_>
          16 1 9 7 2.</_></rects>
      <tilted>0</tilted></_>
    <_>
      <rects>
        <_>
          7 2 1 3 -1.</_>
        <_>
          7 3 1 1 3.</_></rects>
      <tilted>0</tilted></_>
    <_>
      <rects>
        <_>
          7 2 10 8 -1.</_>
        <_>
          7 6 10 4 2.</_></rects>
      <tilted>0</tilted></_>
    <_>
      <rects>
        <_>
          7 3 4 2 -1.</_>
        <_>
          7 3 2 1 2.</_>
        <_>
          9 4 2 1 2.</_></rects>
      <tilted>0</tilted></_>
    <_>
      <rects>
        <_>
          7 5 1 3 -1.</_>
        <_>
          7 6 1 1 3.</_></rects>
      <tilted>0</tilted></_>
    <_>
      <rects>
        <_>
          7 5 10 4 -1.</_>
        <_>
          7 5 5 2 2.</_>
        <_>
          12 7 5 2 2.</_></rects>
      <tilted>0</tilted></_>
    <_>
      <rects>
        <_>
          7 7 10 2 -1.</_>
        <_>
          7 7 5 1 2.</_>
        <_>
          12 8 5 1 2.</_></rects>
      <tilted>0</tilted></_>
    <_>
      <rects>
        <_>
          8 4 6 5 -1.</_>
        <_>
          11 4 3 5 2.</_></rects>
      <tilted>0</tilted></_>
    <_>
      <rects>
        <_>
          8 5 6 4 -1.</_>
        <_>
          10 5 2 4 3.</_></rects>
      <tilted>0</tilted></_>
    <_>
      <rects>
        <_>
          8 5 6 5 -1.</_>
        <_>
          11 5 3 5 2.</_></rects>
      <tilted>0</tilted></_>
    <_>
      <rects>
        <_>
          8 5 10 4 -1.</_>
        <_>
          8 5 5 2 2.</_>
        <_>
          13 7 5 2 2.</_></rects>
      <tilted>0</tilted></_>
    <_>
      <rects>
        <_>
          8 8 8 1 -1.</_>
        <_>
          12 8 4 1 2.</_></rects>
      <tilted>0</tilted></_>
    <_>
      <rects>
        <_>
          9 0 3 3 -1.</_>
        <_>
          10 0 1 3 3.</_></rects>
      <tilted>0</tilted></_>
    <_>
      <rects>
        <_>
          9 2 4 6 -1.</_>
        <_>
          9 5 4 3 2.</_></rects>
      <tilted>0</tilted></_>
    <_>
      <rects>
        <_>
          9 3 8 7 -1.</_>
        <_>
          13 3 4 7 2.</_></rects>
      <tilted>0</tilted></_>
    <_>
      <rects>
        <_>
          9 4 6 5 -1.</_>
        <_>
          12 4 3 5 2.</_></rects>
      <tilted>0</tilted></_>
    <_>
      <rects>
        <_>
          9 5 6 4 -1.</_>
        <_>
          11 5 2 4 3.</_></rects>
      <tilted>0</tilted></_>
    <_>
      <rects>
        <_>
          9 5 16 1 -1.</_>
        <_>
          13 5 8 1 2.</_></rects>
      <tilted>0</tilted></_>
    <_>
      <rects>
        <_>
          9 7 8 2 -1.</_>
        <_>
          9 7 4 1 2.</_>
        <_>
          13 8 4 1 2.</_></rects>
      <tilted>0</tilted></_>
    <_>
      <rects>
        <_>
          10 1 12 6 -1.</_>
        <_>
          10 1 6 3 2.</_>
        <_>
          16 4 6 3 2.</_></rects>
      <tilted>0</tilted></_>
    <_>
      <rects>
        <_>
          10 2 2 2 -1.</_>
        <_>
          10 2 1 1 2.</_>
        <_>
          11 3 1 1 2.</_></rects>
      <tilted>0</tilted></_>
    <_>
      <rects>
        <_>
          10 2 6 2 -1.</_>
        <_>
          10 2 3 2 2.</_></rects>
      <tilted>1</tilted></_>
    <_>
      <rects>
        <_>
          10 4 6 6 -1.</_>
        <_>
          12 6 2 2 9.</_></rects>
      <tilted>0</tilted></_>
    <_>
      <rects>
        <_>
          10 4 8 2 -1.</_>
        <_>
          10 4 4 1 2.</_>
        <_>
          14 5 4 1 2.</_></rects>
      <tilted>0</tilted></_>
    <_>
      <rects>
        <_>
          10 5 6 3 -1.</_>
        <_>
          12 6 2 1 9.</_></rects>
      <tilted>0</tilted></_>
    <_>
      <rects>
        <_>
          10 5 12 2 -1.</_>
        <_>
          10 5 6 1 2.</_>
        <_>
          16 6 6 1 2.</_></rects>
      <tilted>0</tilted></_>
    <_>
      <rects>
        <_>
          11 0 8 2 -1.</_>
        <_>
          11 0 4 1 2.</_>
        <_>
          15 1 4 1 2.</_></rects>
      <tilted>0</tilted></_>
    <_>
      <rects>
        <_>
          11 4 5 6 -1.</_>
        <_>
          11 6 5 2 3.</_></rects>
      <tilted>0</tilted></_>
    <_>
      <rects>
        <_>
          11 5 2 2 -1.</_>
        <_>
          11 5 1 1 2.</_>
        <_>
          12 6 1 1 2.</_></rects>
      <tilted>0</tilted></_>
    <_>
      <rects>
        <_>
          11 5 4 2 -1.</_>
        <_>
          12 5 2 2 2.</_></rects>
      <tilted>0</tilted></_>
    <_>
      <rects>
        <_>
          11 5 4 2 -1.</_>
        <_>
          11 6 4 1 2.</_></rects>
      <tilted>0</tilted></_>
    <_>
      <rects>
        <_>
          11 6 3 1 -1.</_>
        <_>
          12 6 1 1 3.</_></rects>
      <tilted>0</tilted></_>
    <_>
      <rects>
        <_>
          11 6 4 4 -1.</_>
        <_>
          11 7 4 2 2.</_></rects>
      <tilted>0</tilted></_>
    <_>
      <rects>
        <_>
          12 0 9 10 -1.</_>
        <_>
          15 0 3 10 3.</_></rects>
      <tilted>0</tilted></_>
    <_>
      <rects>
        <_>
          12 4 2 4 -1.</_>
        <_>
          12 5 2 2 2.</_></rects>
      <tilted>0</tilted></_>
    <_>
      <rects>
        <_>
          12 4 3 6 -1.</_>
        <_>
          12 6 3 2 3.</_></rects>
      <tilted>0</tilted></_>
    <_>
      <rects>
        <_>
          12 5 1 2 -1.</_>
        <_>
          12 6 1 1 2.</_></rects>
      <tilted>0</tilted></_>
    <_>
      <rects>
        <_>
          12 5 12 5 -1.</_>
        <_>
          15 5 6 5 2.</_></rects>
      <tilted>0</tilted></_>
    <_>
      <rects>
        <_>
          12 6 2 1 -1.</_>
        <_>
          13 6 1 1 2.</_></rects>
      <tilted>0</tilted></_>
    <_>
      <rects>
        <_>
          12 7 1 3 -1.</_>
        <_>
          12 8 1 1 3.</_></rects>
      <tilted>0</tilted></_>
    <_>
      <rects>
        <_>
          12 7 4 3 -1.</_>
        <_>
          12 8 4 1 3.</_></rects>
      <tilted>0</tilted></_>
    <_>
      <rects>
        <_>
          13 0 4 4 -1.</_>
        <_>
          15 0 2 4 2.</_></rects>
      <tilted>0</tilted></_>
    <_>
      <rects>
        <_>
          13 1 2 2 -1.</_>
        <_>
          13 1 1 1 2.</_>
        <_>
          14 2 1 1 2.</_></rects>
      <tilted>0</tilted></_>
    <_>
      <rects>
        <_>
          13 1 8 2 -1.</_>
        <_>
          13 1 4 1 2.</_>
        <_>
          17 2 4 1 2.</_></rects>
      <tilted>0</tilted></_>
    <_>
      <rects>
        <_>
          13 3 10 2 -1.</_>
        <_>
          13 3 5 1 2.</_>
        <_>
          18 4 5 1 2.</_></rects>
      <tilted>0</tilted></_>
    <_>
      <rects>
        <_>
          13 7 3 3 -1.</_>
        <_>
          14 8 1 1 9.</_></rects>
      <tilted>0</tilted></_>
    <_>
      <rects>
        <_>
          13 7 2 3 -1.</_>
        <_>
          13 8 2 1 3.</_></rects>
      <tilted>0</tilted></_>
    <_>
      <rects>
        <_>
          13 7 6 2 -1.</_>
        <_>
          13 7 3 1 2.</_>
        <_>
          16 8 3 1 2.</_></rects>
      <tilted>0</tilted></_>
    <_>
      <rects>
        <_>
          14 6 1 3 -1.</_>
        <_>
          14 7 1 1 3.</_></rects>
      <tilted>0</tilted></_>
    <_>
      <rects>
        <_>
          14 8 2 2 -1.</_>
        <_>
          14 8 1 1 2.</_>
        <_>
          15 9 1 1 2.</_></rects>
      <tilted>0</tilted></_>
    <_>
      <rects>
        <_>
          15 4 10 2 -1.</_>
        <_>
          15 4 5 1 2.</_>
        <_>
          20 5 5 1 2.</_></rects>
      <tilted>0</tilted></_>
    <_>
      <rects>
        <_>
          15 6 4 2 -1.</_>
        <_>
          15 6 2 1 2.</_>
        <_>
          17 7 2 1 2.</_></rects>
      <tilted>0</tilted></_>
    <_>
      <rects>
        <_>
          15 7 9 3 -1.</_>
        <_>
          18 7 3 3 3.</_></rects>
      <tilted>0</tilted></_>
    <_>
      <rects>
        <_>
          16 1 4 2 -1.</_>
        <_>
          16 1 2 1 2.</_>
        <_>
          18 2 2 1 2.</_></rects>
      <tilted>0</tilted></_>
    <_>
      <rects>
        <_>
          16 5 4 2 -1.</_>
        <_>
          16 5 2 1 2.</_>
        <_>
          18 6 2 1 2.</_></rects>
      <tilted>0</tilted></_>
    <_>
      <rects>
        <_>
          16 7 2 3 -1.</_>
        <_>
          16 8 2 1 3.</_></rects>
      <tilted>0</tilted></_>
    <_>
      <rects>
        <_>
          17 1 2 4 -1.</_>
        <_>
          17 3 2 2 2.</_></rects>
      <tilted>0</tilted></_>
    <_>
      <rects>
        <_>
          17 4 8 6 -1.</_>
        <_>
          17 4 4 3 2.</_>
        <_>
          21 7 4 3 2.</_></rects>
      <tilted>0</tilted></_>
    <_>
      <rects>
        <_>
          17 5 3 3 -1.</_>
        <_>
          18 6 1 1 9.</_></rects>
      <tilted>0</tilted></_>
    <_>
      <rects>
        <_>
          18 2 3 4 -1.</_>
        <_>
          19 3 1 4 3.</_></rects>
      <tilted>1</tilted></_>
    <_>
      <rects>
        <_>
          18 3 1 3 -1.</_>
        <_>
          18 4 1 1 3.</_></rects>
      <tilted>0</tilted></_>
    <_>
      <rects>
        <_>
          18 3 4 3 -1.</_>
        <_>
          19 3 2 3 2.</_></rects>
      <tilted>0</tilted></_>
    <_>
      <rects>
        <_>
          18 5 2 2 -1.</_>
        <_>
          18 5 1 1 2.</_>
        <_>
          19 6 1 1 2.</_></rects>
      <tilted>0</tilted></_>
    <_>
      <rects>
        <_>
          18 5 2 2 -1.</_>
        <_>
          18 6 2 1 2.</_></rects>
      <tilted>0</tilted></_>
    <_>
      <rects>
        <_>
          19 2 1 3 -1.</_>
        <_>
          19 3 1 1 3.</_></rects>
      <tilted>0</tilted></_>
    <_>
      <rects>
        <_>
          19 2 2 4 -1.</_>
        <_>
          19 3 2 2 2.</_></rects>
      <tilted>0</tilted></_>
    <_>
      <rects>
        <_>
          19 3 6 4 -1.</_>
        <_>
          19 3 3 2 2.</_>
        <_>
          22 5 3 2 2.</_></rects>
      <tilted>0</tilted></_>
    <_>
      <rects>
        <_>
          19 5 4 2 -1.</_>
        <_>
          20 5 2 2 2.</_></rects>
      <tilted>0</tilted></_>
    <_>
      <rects>
        <_>
          19 5 6 5 -1.</_>
        <_>
          22 5 3 5 2.</_></rects>
      <tilted>0</tilted></_>
    <_>
      <rects>
        <_>
          21 5 3 1 -1.</_>
        <_>
          22 5 1 1 3.</_></rects>
      <tilted>0</tilted></_></features></cascade>
</opencv_storage>
