<?xml version="1.0"?>
<opencv_storage>
<stage1>
  <maxWeakCount>6</maxWeakCount>
  <stageThreshold>-8.0514430999755859e-01</stageThreshold>
  <weakClassifiers>
    <_>
      <internalNodes>
        0 -1 32615 -4.8701439052820206e-02</internalNodes>
      <leafValues>
        6.9465649127960205e-01 -4.7540983557701111e-01</leafValues></_>
    <_>
      <internalNodes>
        0 -1 31081 -1.7838090658187866e-02</internalNodes>
      <leafValues>
        5.6465184688568115e-01 -3.5737153887748718e-01</leafValues></_>
    <_>
      <internalNodes>
        0 -1 41404 6.2411790713667870e-03</internalNodes>
      <leafValues>
        -2.4267165362834930e-01 7.4087196588516235e-01</leafValues></_>
    <_>
      <internalNodes>
        0 -1 19241 -5.7247374206781387e-03</internalNodes>
      <leafValues>
        7.9455435276031494e-01 -2.5247058272361755e-01</leafValues></_>
    <_>
      <internalNodes>
        0 -1 34814 1.5734257176518440e-02</internalNodes>
      <leafValues>
        -1.7286215722560883e-01 8.4159868955612183e-01</leafValues></_>
    <_>
      <internalNodes>
        0 -1 33046 -2.2817213088274002e-02</internalNodes>
      <leafValues>
        7.8669130802154541e-01 -2.2638195753097534e-01</leafValues></_></weakClassifiers></stage1>
</opencv_storage>
